digraph Tree {
node [shape=box, fontname="helvetica"] ;
edge [fontname="helvetica"] ;
0 [label="alcohol <= 10.35\nentropy = 1.718\nsamples = 815\nvalue = [7, 32, 359, 315, 94, 8]"] ;
1 [label="volatile acidity <= 0.335\nentropy = 1.338\nsamples = 446\nvalue = [6, 16, 281, 132, 10, 1]"] ;
0 -> 1 [labeldistance=2.5, labelangle=45, headlabel="True"] ;
2 [label="chlorides <= 0.097\nentropy = 1.498\nsamples = 42\nvalue = [0, 1, 7, 27, 6, 1]"] ;
1 -> 2 ;
3 [label="sulphates <= 0.51\nentropy = 1.297\nsamples = 37\nvalue = [0, 1, 3, 27, 5, 1]"] ;
2 -> 3 ;
4 [label="volatile acidity <= 0.275\nentropy = 0.918\nsamples = 3\nvalue = [0, 1, 2, 0, 0, 0]"] ;
3 -> 4 ;
5 [label="entropy = 0.0\nsamples = 1\nvalue = [0, 1, 0, 0, 0, 0]"] ;
4 -> 5 ;
6 [label="entropy = 0.0\nsamples = 2\nvalue = [0, 0, 2, 0, 0, 0]"] ;
4 -> 6 ;
7 [label="residual sugar <= 14.45\nentropy = 0.97\nsamples = 34\nvalue = [0, 0, 1, 27, 5, 1]"] ;
3 -> 7 ;
8 [label="chlorides <= 0.076\nentropy = 0.802\nsamples = 33\nvalue = [0, 0, 0, 27, 5, 1]"] ;
7 -> 8 ;
9 [label="volatile acidity <= 0.325\nentropy = 1.105\nsamples = 19\nvalue = [0, 0, 0, 13, 5, 1]"] ;
8 -> 9 ;
10 [label="pH <= 3.095\nentropy = 0.852\nsamples = 18\nvalue = [0, 0, 0, 13, 5, 0]"] ;
9 -> 10 ;
11 [label="entropy = 0.0\nsamples = 2\nvalue = [0, 0, 0, 0, 2, 0]"] ;
10 -> 11 ;
12 [label="residual sugar <= 1.45\nentropy = 0.696\nsamples = 16\nvalue = [0, 0, 0, 13, 3, 0]"] ;
10 -> 12 ;
13 [label="sulphates <= 0.73\nentropy = 0.918\nsamples = 3\nvalue = [0, 0, 0, 1, 2, 0]"] ;
12 -> 13 ;
14 [label="entropy = 0.0\nsamples = 1\nvalue = [0, 0, 0, 0, 1, 0]"] ;
13 -> 14 ;
15 [label="citric acid <= 0.465\nentropy = 1.0\nsamples = 2\nvalue = [0, 0, 0, 1, 1, 0]"] ;
13 -> 15 ;
16 [label="entropy = 0.0\nsamples = 1\nvalue = [0, 0, 0, 1, 0, 0]"] ;
15 -> 16 ;
17 [label="entropy = 0.0\nsamples = 1\nvalue = [0, 0, 0, 0, 1, 0]"] ;
15 -> 17 ;
18 [label="free sulfur dioxide <= 35.0\nentropy = 0.391\nsamples = 13\nvalue = [0, 0, 0, 12, 1, 0]"] ;
12 -> 18 ;
19 [label="entropy = 0.0\nsamples = 10\nvalue = [0, 0, 0, 10, 0, 0]"] ;
18 -> 19 ;
20 [label="free sulfur dioxide <= 48.5\nentropy = 0.918\nsamples = 3\nvalue = [0, 0, 0, 2, 1, 0]"] ;
18 -> 20 ;
21 [label="entropy = 0.0\nsamples = 1\nvalue = [0, 0, 0, 0, 1, 0]"] ;
20 -> 21 ;
22 [label="entropy = 0.0\nsamples = 2\nvalue = [0, 0, 0, 2, 0, 0]"] ;
20 -> 22 ;
23 [label="entropy = 0.0\nsamples = 1\nvalue = [0, 0, 0, 0, 0, 1]"] ;
9 -> 23 ;
24 [label="entropy = 0.0\nsamples = 14\nvalue = [0, 0, 0, 14, 0, 0]"] ;
8 -> 24 ;
25 [label="entropy = 0.0\nsamples = 1\nvalue = [0, 0, 1, 0, 0, 0]"] ;
7 -> 25 ;
26 [label="chlorides <= 0.236\nentropy = 0.722\nsamples = 5\nvalue = [0, 0, 4, 0, 1, 0]"] ;
2 -> 26 ;
27 [label="entropy = 0.0\nsamples = 4\nvalue = [0, 0, 4, 0, 0, 0]"] ;
26 -> 27 ;
28 [label="entropy = 0.0\nsamples = 1\nvalue = [0, 0, 0, 0, 1, 0]"] ;
26 -> 28 ;
29 [label="total sulfur dioxide <= 52.5\nentropy = 1.218\nsamples = 404\nvalue = [6, 15, 274, 105, 4, 0]"] ;
1 -> 29 ;
30 [label="volatile acidity <= 0.572\nentropy = 1.485\nsamples = 219\nvalue = [6, 13, 123, 73, 4, 0]"] ;
29 -> 30 ;
31 [label="sulphates <= 0.585\nentropy = 1.356\nsamples = 103\nvalue = [0, 4, 46, 50, 3, 0]"] ;
30 -> 31 ;
32 [label="sulphates <= 0.475\nentropy = 1.318\nsamples = 40\nvalue = [0, 4, 23, 13, 0, 0]"] ;
31 -> 32 ;
33 [label="entropy = 0.0\nsamples = 9\nvalue = [0, 0, 9, 0, 0, 0]"] ;
32 -> 33 ;
34 [label="sulphates <= 0.565\nentropy = 1.425\nsamples = 31\nvalue = [0, 4, 14, 13, 0, 0]"] ;
32 -> 34 ;
35 [label="residual sugar <= 1.95\nentropy = 1.382\nsamples = 24\nvalue = [0, 3, 8, 13, 0, 0]"] ;
34 -> 35 ;
36 [label="alcohol <= 9.75\nentropy = 1.281\nsamples = 12\nvalue = [0, 1, 7, 4, 0, 0]"] ;
35 -> 36 ;
37 [label="free sulfur dioxide <= 16.5\nentropy = 0.986\nsamples = 9\nvalue = [0, 1, 7, 1, 0, 0]"] ;
36 -> 37 ;
38 [label="chlorides <= 0.089\nentropy = 0.544\nsamples = 8\nvalue = [0, 0, 7, 1, 0, 0]"] ;
37 -> 38 ;
39 [label="entropy = 0.0\nsamples = 6\nvalue = [0, 0, 6, 0, 0, 0]"] ;
38 -> 39 ;
40 [label="pH <= 3.27\nentropy = 1.0\nsamples = 2\nvalue = [0, 0, 1, 1, 0, 0]"] ;
38 -> 40 ;
41 [label="entropy = 0.0\nsamples = 1\nvalue = [0, 0, 1, 0, 0, 0]"] ;
40 -> 41 ;
42 [label="entropy = 0.0\nsamples = 1\nvalue = [0, 0, 0, 1, 0, 0]"] ;
40 -> 42 ;
43 [label="entropy = 0.0\nsamples = 1\nvalue = [0, 1, 0, 0, 0, 0]"] ;
37 -> 43 ;
44 [label="entropy = 0.0\nsamples = 3\nvalue = [0, 0, 0, 3, 0, 0]"] ;
36 -> 44 ;
45 [label="chlorides <= 0.069\nentropy = 1.041\nsamples = 12\nvalue = [0, 2, 1, 9, 0, 0]"] ;
35 -> 45 ;
46 [label="density <= 0.996\nentropy = 1.0\nsamples = 2\nvalue = [0, 1, 1, 0, 0, 0]"] ;
45 -> 46 ;
47 [label="entropy = 0.0\nsamples = 1\nvalue = [0, 1, 0, 0, 0, 0]"] ;
46 -> 47 ;
48 [label="entropy = 0.0\nsamples = 1\nvalue = [0, 0, 1, 0, 0, 0]"] ;
46 -> 48 ;
49 [label="chlorides <= 0.102\nentropy = 0.469\nsamples = 10\nvalue = [0, 1, 0, 9, 0, 0]"] ;
45 -> 49 ;
50 [label="entropy = 0.0\nsamples = 9\nvalue = [0, 0, 0, 9, 0, 0]"] ;
49 -> 50 ;
51 [label="entropy = 0.0\nsamples = 1\nvalue = [0, 1, 0, 0, 0, 0]"] ;
49 -> 51 ;
52 [label="residual sugar <= 4.0\nentropy = 0.592\nsamples = 7\nvalue = [0, 1, 6, 0, 0, 0]"] ;
34 -> 52 ;
53 [label="entropy = 0.0\nsamples = 6\nvalue = [0, 0, 6, 0, 0, 0]"] ;
52 -> 53 ;
54 [label="entropy = 0.0\nsamples = 1\nvalue = [0, 1, 0, 0, 0, 0]"] ;
52 -> 54 ;
55 [label="density <= 0.996\nentropy = 1.191\nsamples = 63\nvalue = [0, 0, 23, 37, 3, 0]"] ;
31 -> 55 ;
56 [label="volatile acidity <= 0.425\nentropy = 0.65\nsamples = 6\nvalue = [0, 0, 0, 5, 1, 0]"] ;
55 -> 56 ;
57 [label="entropy = 0.0\nsamples = 1\nvalue = [0, 0, 0, 0, 1, 0]"] ;
56 -> 57 ;
58 [label="entropy = 0.0\nsamples = 5\nvalue = [0, 0, 0, 5, 0, 0]"] ;
56 -> 58 ;
59 [label="total sulfur dioxide <= 43.5\nentropy = 1.165\nsamples = 57\nvalue = [0, 0, 23, 32, 2, 0]"] ;
55 -> 59 ;
60 [label="chlorides <= 0.168\nentropy = 0.998\nsamples = 42\nvalue = [0, 0, 20, 22, 0, 0]"] ;
59 -> 60 ;
61 [label="chlorides <= 0.094\nentropy = 0.991\nsamples = 36\nvalue = [0, 0, 20, 16, 0, 0]"] ;
60 -> 61 ;
62 [label="total sulfur dioxide <= 41.0\nentropy = 0.985\nsamples = 28\nvalue = [0, 0, 12, 16, 0, 0]"] ;
61 -> 62 ;
63 [label="density <= 0.997\nentropy = 0.943\nsamples = 25\nvalue = [0, 0, 9, 16, 0, 0]"] ;
62 -> 63 ;
64 [label="citric acid <= 0.01\nentropy = 0.863\nsamples = 7\nvalue = [0, 0, 5, 2, 0, 0]"] ;
63 -> 64 ;
65 [label="entropy = 0.0\nsamples = 2\nvalue = [0, 0, 0, 2, 0, 0]"] ;
64 -> 65 ;
66 [label="entropy = 0.0\nsamples = 5\nvalue = [0, 0, 5, 0, 0, 0]"] ;
64 -> 66 ;
67 [label="sulphates <= 0.635\nentropy = 0.764\nsamples = 18\nvalue = [0, 0, 4, 14, 0, 0]"] ;
63 -> 67 ;
68 [label="entropy = 0.0\nsamples = 6\nvalue = [0, 0, 0, 6, 0, 0]"] ;
67 -> 68 ;
69 [label="sulphates <= 0.645\nentropy = 0.918\nsamples = 12\nvalue = [0, 0, 4, 8, 0, 0]"] ;
67 -> 69 ;
70 [label="entropy = 0.0\nsamples = 2\nvalue = [0, 0, 2, 0, 0, 0]"] ;
69 -> 70 ;
71 [label="residual sugar <= 2.15\nentropy = 0.722\nsamples = 10\nvalue = [0, 0, 2, 8, 0, 0]"] ;
69 -> 71 ;
72 [label="entropy = 0.0\nsamples = 6\nvalue = [0, 0, 0, 6, 0, 0]"] ;
71 -> 72 ;
73 [label="residual sugar <= 2.35\nentropy = 1.0\nsamples = 4\nvalue = [0, 0, 2, 2, 0, 0]"] ;
71 -> 73 ;
74 [label="entropy = 0.0\nsamples = 2\nvalue = [0, 0, 2, 0, 0, 0]"] ;
73 -> 74 ;
75 [label="entropy = 0.0\nsamples = 2\nvalue = [0, 0, 0, 2, 0, 0]"] ;
73 -> 75 ;
76 [label="entropy = 0.0\nsamples = 3\nvalue = [0, 0, 3, 0, 0, 0]"] ;
62 -> 76 ;
77 [label="entropy = 0.0\nsamples = 8\nvalue = [0, 0, 8, 0, 0, 0]"] ;
61 -> 77 ;
78 [label="entropy = 0.0\nsamples = 6\nvalue = [0, 0, 0, 6, 0, 0]"] ;
60 -> 78 ;
79 [label="citric acid <= 0.325\nentropy = 1.242\nsamples = 15\nvalue = [0, 0, 3, 10, 2, 0]"] ;
59 -> 79 ;
80 [label="entropy = 0.0\nsamples = 10\nvalue = [0, 0, 0, 10, 0, 0]"] ;
79 -> 80 ;
81 [label="alcohol <= 9.55\nentropy = 0.971\nsamples = 5\nvalue = [0, 0, 3, 0, 2, 0]"] ;
79 -> 81 ;
82 [label="entropy = 0.0\nsamples = 3\nvalue = [0, 0, 3, 0, 0, 0]"] ;
81 -> 82 ;
83 [label="entropy = 0.0\nsamples = 2\nvalue = [0, 0, 0, 0, 2, 0]"] ;
81 -> 83 ;
84 [label="chlorides <= 0.193\nentropy = 1.422\nsamples = 116\nvalue = [6, 9, 77, 23, 1, 0]"] ;
30 -> 84 ;
85 [label="residual sugar <= 2.15\nentropy = 1.358\nsamples = 113\nvalue = [4, 9, 77, 22, 1, 0]"] ;
84 -> 85 ;
86 [label="volatile acidity <= 0.712\nentropy = 1.524\nsamples = 68\nvalue = [2, 9, 42, 14, 1, 0]"] ;
85 -> 86 ;
87 [label="density <= 0.996\nentropy = 1.415\nsamples = 49\nvalue = [0, 5, 29, 14, 1, 0]"] ;
86 -> 87 ;
88 [label="pH <= 3.615\nentropy = 0.439\nsamples = 11\nvalue = [0, 1, 10, 0, 0, 0]"] ;
87 -> 88 ;
89 [label="entropy = 0.0\nsamples = 10\nvalue = [0, 0, 10, 0, 0, 0]"] ;
88 -> 89 ;
90 [label="entropy = 0.0\nsamples = 1\nvalue = [0, 1, 0, 0, 0, 0]"] ;
88 -> 90 ;
91 [label="pH <= 3.355\nentropy = 1.511\nsamples = 38\nvalue = [0, 4, 19, 14, 1, 0]"] ;
87 -> 91 ;
92 [label="residual sugar <= 2.05\nentropy = 1.493\nsamples = 14\nvalue = [0, 4, 3, 7, 0, 0]"] ;
91 -> 92 ;
93 [label="sulphates <= 0.865\nentropy = 1.241\nsamples = 11\nvalue = [0, 1, 3, 7, 0, 0]"] ;
92 -> 93 ;
94 [label="fixed acidity <= 8.65\nentropy = 0.881\nsamples = 10\nvalue = [0, 0, 3, 7, 0, 0]"] ;
93 -> 94 ;
95 [label="entropy = 0.0\nsamples = 4\nvalue = [0, 0, 0, 4, 0, 0]"] ;
94 -> 95 ;
96 [label="chlorides <= 0.081\nentropy = 1.0\nsamples = 6\nvalue = [0, 0, 3, 3, 0, 0]"] ;
94 -> 96 ;
97 [label="sulphates <= 0.5\nentropy = 0.811\nsamples = 4\nvalue = [0, 0, 1, 3, 0, 0]"] ;
96 -> 97 ;
98 [label="chlorides <= 0.054\nentropy = 1.0\nsamples = 2\nvalue = [0, 0, 1, 1, 0, 0]"] ;
97 -> 98 ;
99 [label="entropy = 0.0\nsamples = 1\nvalue = [0, 0, 0, 1, 0, 0]"] ;
98 -> 99 ;
100 [label="entropy = 0.0\nsamples = 1\nvalue = [0, 0, 1, 0, 0, 0]"] ;
98 -> 100 ;
101 [label="entropy = 0.0\nsamples = 2\nvalue = [0, 0, 0, 2, 0, 0]"] ;
97 -> 101 ;
102 [label="entropy = 0.0\nsamples = 2\nvalue = [0, 0, 2, 0, 0, 0]"] ;
96 -> 102 ;
103 [label="entropy = 0.0\nsamples = 1\nvalue = [0, 1, 0, 0, 0, 0]"] ;
93 -> 103 ;
104 [label="entropy = 0.0\nsamples = 3\nvalue = [0, 3, 0, 0, 0, 0]"] ;
92 -> 104 ;
105 [label="sulphates <= 0.575\nentropy = 1.099\nsamples = 24\nvalue = [0, 0, 16, 7, 1, 0]"] ;
91 -> 105 ;
106 [label="volatile acidity <= 0.6\nentropy = 0.544\nsamples = 8\nvalue = [0, 0, 7, 0, 1, 0]"] ;
105 -> 106 ;
107 [label="entropy = 0.0\nsamples = 1\nvalue = [0, 0, 0, 0, 1, 0]"] ;
106 -> 107 ;
108 [label="entropy = 0.0\nsamples = 7\nvalue = [0, 0, 7, 0, 0, 0]"] ;
106 -> 108 ;
109 [label="fixed acidity <= 6.95\nentropy = 0.989\nsamples = 16\nvalue = [0, 0, 9, 7, 0, 0]"] ;
105 -> 109 ;
110 [label="entropy = 0.0\nsamples = 6\nvalue = [0, 0, 6, 0, 0, 0]"] ;
109 -> 110 ;
111 [label="density <= 0.997\nentropy = 0.881\nsamples = 10\nvalue = [0, 0, 3, 7, 0, 0]"] ;
109 -> 111 ;
112 [label="citric acid <= 0.03\nentropy = 0.544\nsamples = 8\nvalue = [0, 0, 1, 7, 0, 0]"] ;
111 -> 112 ;
113 [label="entropy = 0.0\nsamples = 5\nvalue = [0, 0, 0, 5, 0, 0]"] ;
112 -> 113 ;
114 [label="density <= 0.997\nentropy = 0.918\nsamples = 3\nvalue = [0, 0, 1, 2, 0, 0]"] ;
112 -> 114 ;
115 [label="entropy = 0.0\nsamples = 2\nvalue = [0, 0, 0, 2, 0, 0]"] ;
114 -> 115 ;
116 [label="entropy = 0.0\nsamples = 1\nvalue = [0, 0, 1, 0, 0, 0]"] ;
114 -> 116 ;
117 [label="entropy = 0.0\nsamples = 2\nvalue = [0, 0, 2, 0, 0, 0]"] ;
111 -> 117 ;
118 [label="sulphates <= 0.545\nentropy = 1.19\nsamples = 19\nvalue = [2, 4, 13, 0, 0, 0]"] ;
86 -> 118 ;
119 [label="residual sugar <= 1.65\nentropy = 0.946\nsamples = 11\nvalue = [0, 4, 7, 0, 0, 0]"] ;
118 -> 119 ;
120 [label="entropy = 0.0\nsamples = 2\nvalue = [0, 2, 0, 0, 0, 0]"] ;
119 -> 120 ;
121 [label="fixed acidity <= 7.8\nentropy = 0.764\nsamples = 9\nvalue = [0, 2, 7, 0, 0, 0]"] ;
119 -> 121 ;
122 [label="entropy = 0.0\nsamples = 6\nvalue = [0, 0, 6, 0, 0, 0]"] ;
121 -> 122 ;
123 [label="residual sugar <= 1.75\nentropy = 0.918\nsamples = 3\nvalue = [0, 2, 1, 0, 0, 0]"] ;
121 -> 123 ;
124 [label="entropy = 0.0\nsamples = 1\nvalue = [0, 0, 1, 0, 0, 0]"] ;
123 -> 124 ;
125 [label="entropy = 0.0\nsamples = 2\nvalue = [0, 2, 0, 0, 0, 0]"] ;
123 -> 125 ;
126 [label="pH <= 3.3\nentropy = 0.811\nsamples = 8\nvalue = [2, 0, 6, 0, 0, 0]"] ;
118 -> 126 ;
127 [label="entropy = 0.0\nsamples = 5\nvalue = [0, 0, 5, 0, 0, 0]"] ;
126 -> 127 ;
128 [label="total sulfur dioxide <= 50.5\nentropy = 0.918\nsamples = 3\nvalue = [2, 0, 1, 0, 0, 0]"] ;
126 -> 128 ;
129 [label="entropy = 0.0\nsamples = 2\nvalue = [2, 0, 0, 0, 0, 0]"] ;
128 -> 129 ;
130 [label="entropy = 0.0\nsamples = 1\nvalue = [0, 0, 1, 0, 0, 0]"] ;
128 -> 130 ;
131 [label="density <= 0.998\nentropy = 0.925\nsamples = 45\nvalue = [2, 0, 35, 8, 0, 0]"] ;
85 -> 131 ;
132 [label="volatile acidity <= 0.95\nentropy = 0.391\nsamples = 26\nvalue = [0, 0, 24, 2, 0, 0]"] ;
131 -> 132 ;
133 [label="entropy = 0.0\nsamples = 23\nvalue = [0, 0, 23, 0, 0, 0]"] ;
132 -> 133 ;
134 [label="citric acid <= 0.025\nentropy = 0.918\nsamples = 3\nvalue = [0, 0, 1, 2, 0, 0]"] ;
132 -> 134 ;
135 [label="entropy = 0.0\nsamples = 1\nvalue = [0, 0, 1, 0, 0, 0]"] ;
134 -> 135 ;
136 [label="entropy = 0.0\nsamples = 2\nvalue = [0, 0, 0, 2, 0, 0]"] ;
134 -> 136 ;
137 [label="sulphates <= 0.695\nentropy = 1.324\nsamples = 19\nvalue = [2, 0, 11, 6, 0, 0]"] ;
131 -> 137 ;
138 [label="chlorides <= 0.083\nentropy = 1.149\nsamples = 14\nvalue = [2, 0, 10, 2, 0, 0]"] ;
137 -> 138 ;
139 [label="pH <= 3.205\nentropy = 0.971\nsamples = 5\nvalue = [2, 0, 3, 0, 0, 0]"] ;
138 -> 139 ;
140 [label="entropy = 0.0\nsamples = 3\nvalue = [0, 0, 3, 0, 0, 0]"] ;
139 -> 140 ;
141 [label="entropy = 0.0\nsamples = 2\nvalue = [2, 0, 0, 0, 0, 0]"] ;
139 -> 141 ;
142 [label="density <= 0.999\nentropy = 0.764\nsamples = 9\nvalue = [0, 0, 7, 2, 0, 0]"] ;
138 -> 142 ;
143 [label="entropy = 0.0\nsamples = 5\nvalue = [0, 0, 5, 0, 0, 0]"] ;
142 -> 143 ;
144 [label="chlorides <= 0.094\nentropy = 1.0\nsamples = 4\nvalue = [0, 0, 2, 2, 0, 0]"] ;
142 -> 144 ;
145 [label="entropy = 0.0\nsamples = 2\nvalue = [0, 0, 0, 2, 0, 0]"] ;
144 -> 145 ;
146 [label="entropy = 0.0\nsamples = 2\nvalue = [0, 0, 2, 0, 0, 0]"] ;
144 -> 146 ;
147 [label="chlorides <= 0.091\nentropy = 0.722\nsamples = 5\nvalue = [0, 0, 1, 4, 0, 0]"] ;
137 -> 147 ;
148 [label="entropy = 0.0\nsamples = 4\nvalue = [0, 0, 0, 4, 0, 0]"] ;
147 -> 148 ;
149 [label="entropy = 0.0\nsamples = 1\nvalue = [0, 0, 1, 0, 0, 0]"] ;
147 -> 149 ;
150 [label="residual sugar <= 2.3\nentropy = 0.918\nsamples = 3\nvalue = [2, 0, 0, 1, 0, 0]"] ;
84 -> 150 ;
151 [label="entropy = 0.0\nsamples = 2\nvalue = [2, 0, 0, 0, 0, 0]"] ;
150 -> 151 ;
152 [label="entropy = 0.0\nsamples = 1\nvalue = [0, 0, 0, 1, 0, 0]"] ;
150 -> 152 ;
153 [label="total sulfur dioxide <= 114.5\nentropy = 0.748\nsamples = 185\nvalue = [0, 2, 151, 32, 0, 0]"] ;
29 -> 153 ;
154 [label="pH <= 2.92\nentropy = 0.839\nsamples = 152\nvalue = [0, 2, 118, 32, 0, 0]"] ;
153 -> 154 ;
155 [label="volatile acidity <= 0.64\nentropy = 1.0\nsamples = 2\nvalue = [0, 1, 0, 1, 0, 0]"] ;
154 -> 155 ;
156 [label="entropy = 0.0\nsamples = 1\nvalue = [0, 1, 0, 0, 0, 0]"] ;
155 -> 156 ;
157 [label="entropy = 0.0\nsamples = 1\nvalue = [0, 0, 0, 1, 0, 0]"] ;
155 -> 157 ;
158 [label="chlorides <= 0.097\nentropy = 0.791\nsamples = 150\nvalue = [0, 1, 118, 31, 0, 0]"] ;
154 -> 158 ;
159 [label="citric acid <= 0.115\nentropy = 0.895\nsamples = 112\nvalue = [0, 1, 82, 29, 0, 0]"] ;
158 -> 159 ;
160 [label="pH <= 3.545\nentropy = 0.258\nsamples = 23\nvalue = [0, 0, 22, 1, 0, 0]"] ;
159 -> 160 ;
161 [label="entropy = 0.0\nsamples = 21\nvalue = [0, 0, 21, 0, 0, 0]"] ;
160 -> 161 ;
162 [label="alcohol <= 9.8\nentropy = 1.0\nsamples = 2\nvalue = [0, 0, 1, 1, 0, 0]"] ;
160 -> 162 ;
163 [label="entropy = 0.0\nsamples = 1\nvalue = [0, 0, 0, 1, 0, 0]"] ;
162 -> 163 ;
164 [label="entropy = 0.0\nsamples = 1\nvalue = [0, 0, 1, 0, 0, 0]"] ;
162 -> 164 ;
165 [label="chlorides <= 0.09\nentropy = 0.981\nsamples = 89\nvalue = [0, 1, 60, 28, 0, 0]"] ;
159 -> 165 ;
166 [label="chlorides <= 0.083\nentropy = 0.833\nsamples = 72\nvalue = [0, 0, 53, 19, 0, 0]"] ;
165 -> 166 ;
167 [label="fixed acidity <= 8.25\nentropy = 0.907\nsamples = 59\nvalue = [0, 0, 40, 19, 0, 0]"] ;
166 -> 167 ;
168 [label="alcohol <= 9.225\nentropy = 0.976\nsamples = 44\nvalue = [0, 0, 26, 18, 0, 0]"] ;
167 -> 168 ;
169 [label="entropy = 0.0\nsamples = 6\nvalue = [0, 0, 6, 0, 0, 0]"] ;
168 -> 169 ;
170 [label="alcohol <= 10.05\nentropy = 0.998\nsamples = 38\nvalue = [0, 0, 20, 18, 0, 0]"] ;
168 -> 170 ;
171 [label="fixed acidity <= 7.85\nentropy = 0.994\nsamples = 33\nvalue = [0, 0, 15, 18, 0, 0]"] ;
170 -> 171 ;
172 [label="residual sugar <= 2.45\nentropy = 0.983\nsamples = 26\nvalue = [0, 0, 15, 11, 0, 0]"] ;
171 -> 172 ;
173 [label="sulphates <= 0.535\nentropy = 0.932\nsamples = 23\nvalue = [0, 0, 15, 8, 0, 0]"] ;
172 -> 173 ;
174 [label="entropy = 0.0\nsamples = 6\nvalue = [0, 0, 6, 0, 0, 0]"] ;
173 -> 174 ;
175 [label="chlorides <= 0.078\nentropy = 0.998\nsamples = 17\nvalue = [0, 0, 9, 8, 0, 0]"] ;
173 -> 175 ;
176 [label="pH <= 3.27\nentropy = 0.592\nsamples = 7\nvalue = [0, 0, 6, 1, 0, 0]"] ;
175 -> 176 ;
177 [label="entropy = 0.0\nsamples = 1\nvalue = [0, 0, 0, 1, 0, 0]"] ;
176 -> 177 ;
178 [label="entropy = 0.0\nsamples = 6\nvalue = [0, 0, 6, 0, 0, 0]"] ;
176 -> 178 ;
179 [label="fixed acidity <= 7.45\nentropy = 0.881\nsamples = 10\nvalue = [0, 0, 3, 7, 0, 0]"] ;
175 -> 179 ;
180 [label="entropy = 0.0\nsamples = 4\nvalue = [0, 0, 0, 4, 0, 0]"] ;
179 -> 180 ;
181 [label="volatile acidity <= 0.375\nentropy = 1.0\nsamples = 6\nvalue = [0, 0, 3, 3, 0, 0]"] ;
179 -> 181 ;
182 [label="entropy = 0.0\nsamples = 2\nvalue = [0, 0, 0, 2, 0, 0]"] ;
181 -> 182 ;
183 [label="free sulfur dioxide <= 26.5\nentropy = 0.811\nsamples = 4\nvalue = [0, 0, 3, 1, 0, 0]"] ;
181 -> 183 ;
184 [label="entropy = 0.0\nsamples = 3\nvalue = [0, 0, 3, 0, 0, 0]"] ;
183 -> 184 ;
185 [label="entropy = 0.0\nsamples = 1\nvalue = [0, 0, 0, 1, 0, 0]"] ;
183 -> 185 ;
186 [label="entropy = 0.0\nsamples = 3\nvalue = [0, 0, 0, 3, 0, 0]"] ;
172 -> 186 ;
187 [label="entropy = 0.0\nsamples = 7\nvalue = [0, 0, 0, 7, 0, 0]"] ;
171 -> 187 ;
188 [label="entropy = 0.0\nsamples = 5\nvalue = [0, 0, 5, 0, 0, 0]"] ;
170 -> 188 ;
189 [label="pH <= 3.115\nentropy = 0.353\nsamples = 15\nvalue = [0, 0, 14, 1, 0, 0]"] ;
167 -> 189 ;
190 [label="chlorides <= 0.078\nentropy = 1.0\nsamples = 2\nvalue = [0, 0, 1, 1, 0, 0]"] ;
189 -> 190 ;
191 [label="entropy = 0.0\nsamples = 1\nvalue = [0, 0, 0, 1, 0, 0]"] ;
190 -> 191 ;
192 [label="entropy = 0.0\nsamples = 1\nvalue = [0, 0, 1, 0, 0, 0]"] ;
190 -> 192 ;
193 [label="entropy = 0.0\nsamples = 13\nvalue = [0, 0, 13, 0, 0, 0]"] ;
189 -> 193 ;
194 [label="entropy = 0.0\nsamples = 13\nvalue = [0, 0, 13, 0, 0, 0]"] ;
166 -> 194 ;
195 [label="sulphates <= 0.615\nentropy = 1.253\nsamples = 17\nvalue = [0, 1, 7, 9, 0, 0]"] ;
165 -> 195 ;
196 [label="residual sugar <= 3.5\nentropy = 1.157\nsamples = 10\nvalue = [0, 1, 7, 2, 0, 0]"] ;
195 -> 196 ;
197 [label="total sulfur dioxide <= 80.5\nentropy = 0.544\nsamples = 8\nvalue = [0, 1, 7, 0, 0, 0]"] ;
196 -> 197 ;
198 [label="alcohol <= 9.65\nentropy = 1.0\nsamples = 2\nvalue = [0, 1, 1, 0, 0, 0]"] ;
197 -> 198 ;
199 [label="entropy = 0.0\nsamples = 1\nvalue = [0, 1, 0, 0, 0, 0]"] ;
198 -> 199 ;
200 [label="entropy = 0.0\nsamples = 1\nvalue = [0, 0, 1, 0, 0, 0]"] ;
198 -> 200 ;
201 [label="entropy = 0.0\nsamples = 6\nvalue = [0, 0, 6, 0, 0, 0]"] ;
197 -> 201 ;
202 [label="entropy = 0.0\nsamples = 2\nvalue = [0, 0, 0, 2, 0, 0]"] ;
196 -> 202 ;
203 [label="entropy = 0.0\nsamples = 7\nvalue = [0, 0, 0, 7, 0, 0]"] ;
195 -> 203 ;
204 [label="density <= 0.996\nentropy = 0.297\nsamples = 38\nvalue = [0, 0, 36, 2, 0, 0]"] ;
158 -> 204 ;
205 [label="entropy = 0.0\nsamples = 1\nvalue = [0, 0, 0, 1, 0, 0]"] ;
204 -> 205 ;
206 [label="residual sugar <= 11.75\nentropy = 0.179\nsamples = 37\nvalue = [0, 0, 36, 1, 0, 0]"] ;
204 -> 206 ;
207 [label="entropy = 0.0\nsamples = 36\nvalue = [0, 0, 36, 0, 0, 0]"] ;
206 -> 207 ;
208 [label="entropy = 0.0\nsamples = 1\nvalue = [0, 0, 0, 1, 0, 0]"] ;
206 -> 208 ;
209 [label="entropy = 0.0\nsamples = 33\nvalue = [0, 0, 33, 0, 0, 0]"] ;
153 -> 209 ;
210 [label="sulphates <= 0.625\nentropy = 1.79\nsamples = 369\nvalue = [1, 16, 78, 183, 84, 7]"] ;
0 -> 210 [labeldistance=2.5, labelangle=-45, headlabel="False"] ;
211 [label="volatile acidity <= 1.015\nentropy = 1.682\nsamples = 160\nvalue = [1, 15, 50, 81, 13, 0]"] ;
210 -> 211 ;
212 [label="residual sugar <= 3.85\nentropy = 1.586\nsamples = 154\nvalue = [0, 11, 49, 81, 13, 0]"] ;
211 -> 212 ;
213 [label="volatile acidity <= 0.385\nentropy = 1.446\nsamples = 138\nvalue = [0, 6, 45, 78, 9, 0]"] ;
212 -> 213 ;
214 [label="sulphates <= 0.585\nentropy = 1.27\nsamples = 35\nvalue = [0, 0, 6, 23, 6, 0]"] ;
213 -> 214 ;
215 [label="density <= 0.994\nentropy = 0.764\nsamples = 25\nvalue = [0, 0, 1, 21, 3, 0]"] ;
214 -> 215 ;
216 [label="total sulfur dioxide <= 14.5\nentropy = 1.241\nsamples = 11\nvalue = [0, 0, 1, 7, 3, 0]"] ;
215 -> 216 ;
217 [label="chlorides <= 0.064\nentropy = 0.971\nsamples = 5\nvalue = [0, 0, 0, 2, 3, 0]"] ;
216 -> 217 ;
218 [label="entropy = 0.0\nsamples = 2\nvalue = [0, 0, 0, 2, 0, 0]"] ;
217 -> 218 ;
219 [label="entropy = 0.0\nsamples = 3\nvalue = [0, 0, 0, 0, 3, 0]"] ;
217 -> 219 ;
220 [label="alcohol <= 11.7\nentropy = 0.65\nsamples = 6\nvalue = [0, 0, 1, 5, 0, 0]"] ;
216 -> 220 ;
221 [label="entropy = 0.0\nsamples = 1\nvalue = [0, 0, 1, 0, 0, 0]"] ;
220 -> 221 ;
222 [label="entropy = 0.0\nsamples = 5\nvalue = [0, 0, 0, 5, 0, 0]"] ;
220 -> 222 ;
223 [label="entropy = 0.0\nsamples = 14\nvalue = [0, 0, 0, 14, 0, 0]"] ;
215 -> 223 ;
224 [label="density <= 0.994\nentropy = 1.485\nsamples = 10\nvalue = [0, 0, 5, 2, 3, 0]"] ;
214 -> 224 ;
225 [label="entropy = 0.0\nsamples = 3\nvalue = [0, 0, 0, 0, 3, 0]"] ;
224 -> 225 ;
226 [label="alcohol <= 10.75\nentropy = 0.863\nsamples = 7\nvalue = [0, 0, 5, 2, 0, 0]"] ;
224 -> 226 ;
227 [label="entropy = 0.0\nsamples = 4\nvalue = [0, 0, 4, 0, 0, 0]"] ;
226 -> 227 ;
228 [label="residual sugar <= 2.325\nentropy = 0.918\nsamples = 3\nvalue = [0, 0, 1, 2, 0, 0]"] ;
226 -> 228 ;
229 [label="entropy = 0.0\nsamples = 2\nvalue = [0, 0, 0, 2, 0, 0]"] ;
228 -> 229 ;
230 [label="entropy = 0.0\nsamples = 1\nvalue = [0, 0, 1, 0, 0, 0]"] ;
228 -> 230 ;
231 [label="free sulfur dioxide <= 8.5\nentropy = 1.401\nsamples = 103\nvalue = [0, 6, 39, 55, 3, 0]"] ;
213 -> 231 ;
232 [label="chlorides <= 0.087\nentropy = 1.426\nsamples = 36\nvalue = [0, 5, 18, 13, 0, 0]"] ;
231 -> 232 ;
233 [label="chlorides <= 0.08\nentropy = 1.44\nsamples = 29\nvalue = [0, 4, 12, 13, 0, 0]"] ;
232 -> 233 ;
234 [label="volatile acidity <= 0.722\nentropy = 1.435\nsamples = 22\nvalue = [0, 4, 12, 6, 0, 0]"] ;
233 -> 234 ;
235 [label="sulphates <= 0.615\nentropy = 1.371\nsamples = 20\nvalue = [0, 4, 12, 4, 0, 0]"] ;
234 -> 235 ;
236 [label="residual sugar <= 2.55\nentropy = 1.224\nsamples = 18\nvalue = [0, 4, 12, 2, 0, 0]"] ;
235 -> 236 ;
237 [label="fixed acidity <= 7.0\nentropy = 1.459\nsamples = 12\nvalue = [0, 4, 6, 2, 0, 0]"] ;
236 -> 237 ;
238 [label="density <= 0.992\nentropy = 1.061\nsamples = 8\nvalue = [0, 1, 6, 1, 0, 0]"] ;
237 -> 238 ;
239 [label="entropy = 0.0\nsamples = 1\nvalue = [0, 0, 0, 1, 0, 0]"] ;
238 -> 239 ;
240 [label="fixed acidity <= 5.1\nentropy = 0.592\nsamples = 7\nvalue = [0, 1, 6, 0, 0, 0]"] ;
238 -> 240 ;
241 [label="entropy = 0.0\nsamples = 1\nvalue = [0, 1, 0, 0, 0, 0]"] ;
240 -> 241 ;
242 [label="entropy = 0.0\nsamples = 6\nvalue = [0, 0, 6, 0, 0, 0]"] ;
240 -> 242 ;
243 [label="free sulfur dioxide <= 7.5\nentropy = 0.811\nsamples = 4\nvalue = [0, 3, 0, 1, 0, 0]"] ;
237 -> 243 ;
244 [label="entropy = 0.0\nsamples = 3\nvalue = [0, 3, 0, 0, 0, 0]"] ;
243 -> 244 ;
245 [label="entropy = 0.0\nsamples = 1\nvalue = [0, 0, 0, 1, 0, 0]"] ;
243 -> 245 ;
246 [label="entropy = 0.0\nsamples = 6\nvalue = [0, 0, 6, 0, 0, 0]"] ;
236 -> 246 ;
247 [label="entropy = 0.0\nsamples = 2\nvalue = [0, 0, 0, 2, 0, 0]"] ;
235 -> 247 ;
248 [label="entropy = 0.0\nsamples = 2\nvalue = [0, 0, 0, 2, 0, 0]"] ;
234 -> 248 ;
249 [label="entropy = 0.0\nsamples = 7\nvalue = [0, 0, 0, 7, 0, 0]"] ;
233 -> 249 ;
250 [label="volatile acidity <= 0.395\nentropy = 0.592\nsamples = 7\nvalue = [0, 1, 6, 0, 0, 0]"] ;
232 -> 250 ;
251 [label="entropy = 0.0\nsamples = 1\nvalue = [0, 1, 0, 0, 0, 0]"] ;
250 -> 251 ;
252 [label="entropy = 0.0\nsamples = 6\nvalue = [0, 0, 6, 0, 0, 0]"] ;
250 -> 252 ;
253 [label="total sulfur dioxide <= 18.5\nentropy = 1.238\nsamples = 67\nvalue = [0, 1, 21, 42, 3, 0]"] ;
231 -> 253 ;
254 [label="pH <= 3.39\nentropy = 1.0\nsamples = 4\nvalue = [0, 0, 0, 2, 2, 0]"] ;
253 -> 254 ;
255 [label="entropy = 0.0\nsamples = 2\nvalue = [0, 0, 0, 0, 2, 0]"] ;
254 -> 255 ;
256 [label="entropy = 0.0\nsamples = 2\nvalue = [0, 0, 0, 2, 0, 0]"] ;
254 -> 256 ;
257 [label="pH <= 3.575\nentropy = 1.134\nsamples = 63\nvalue = [0, 1, 21, 40, 1, 0]"] ;
253 -> 257 ;
258 [label="density <= 0.998\nentropy = 1.203\nsamples = 54\nvalue = [0, 1, 21, 31, 1, 0]"] ;
257 -> 258 ;
259 [label="total sulfur dioxide <= 43.5\nentropy = 1.245\nsamples = 48\nvalue = [0, 1, 21, 25, 1, 0]"] ;
258 -> 259 ;
260 [label="sulphates <= 0.615\nentropy = 1.091\nsamples = 29\nvalue = [0, 0, 9, 19, 1, 0]"] ;
259 -> 260 ;
261 [label="chlorides <= 0.054\nentropy = 0.906\nsamples = 28\nvalue = [0, 0, 9, 19, 0, 0]"] ;
260 -> 261 ;
262 [label="entropy = 0.0\nsamples = 3\nvalue = [0, 0, 3, 0, 0, 0]"] ;
261 -> 262 ;
263 [label="residual sugar <= 2.25\nentropy = 0.795\nsamples = 25\nvalue = [0, 0, 6, 19, 0, 0]"] ;
261 -> 263 ;
264 [label="entropy = 0.0\nsamples = 12\nvalue = [0, 0, 0, 12, 0, 0]"] ;
263 -> 264 ;
265 [label="sulphates <= 0.565\nentropy = 0.996\nsamples = 13\nvalue = [0, 0, 6, 7, 0, 0]"] ;
263 -> 265 ;
266 [label="volatile acidity <= 0.618\nentropy = 0.65\nsamples = 6\nvalue = [0, 0, 5, 1, 0, 0]"] ;
265 -> 266 ;
267 [label="entropy = 0.0\nsamples = 5\nvalue = [0, 0, 5, 0, 0, 0]"] ;
266 -> 267 ;
268 [label="entropy = 0.0\nsamples = 1\nvalue = [0, 0, 0, 1, 0, 0]"] ;
266 -> 268 ;
269 [label="chlorides <= 0.069\nentropy = 0.592\nsamples = 7\nvalue = [0, 0, 1, 6, 0, 0]"] ;
265 -> 269 ;
270 [label="entropy = 0.0\nsamples = 1\nvalue = [0, 0, 1, 0, 0, 0]"] ;
269 -> 270 ;
271 [label="entropy = 0.0\nsamples = 6\nvalue = [0, 0, 0, 6, 0, 0]"] ;
269 -> 271 ;
272 [label="entropy = 0.0\nsamples = 1\nvalue = [0, 0, 0, 0, 1, 0]"] ;
260 -> 272 ;
273 [label="density <= 0.995\nentropy = 1.167\nsamples = 19\nvalue = [0, 1, 12, 6, 0, 0]"] ;
259 -> 273 ;
274 [label="pH <= 3.335\nentropy = 1.0\nsamples = 12\nvalue = [0, 0, 6, 6, 0, 0]"] ;
273 -> 274 ;
275 [label="entropy = 0.0\nsamples = 3\nvalue = [0, 0, 0, 3, 0, 0]"] ;
274 -> 275 ;
276 [label="free sulfur dioxide <= 23.5\nentropy = 0.918\nsamples = 9\nvalue = [0, 0, 6, 3, 0, 0]"] ;
274 -> 276 ;
277 [label="fixed acidity <= 6.35\nentropy = 0.811\nsamples = 4\nvalue = [0, 0, 1, 3, 0, 0]"] ;
276 -> 277 ;
278 [label="entropy = 0.0\nsamples = 1\nvalue = [0, 0, 1, 0, 0, 0]"] ;
277 -> 278 ;
279 [label="entropy = 0.0\nsamples = 3\nvalue = [0, 0, 0, 3, 0, 0]"] ;
277 -> 279 ;
280 [label="entropy = 0.0\nsamples = 5\nvalue = [0, 0, 5, 0, 0, 0]"] ;
276 -> 280 ;
281 [label="citric acid <= 0.355\nentropy = 0.592\nsamples = 7\nvalue = [0, 1, 6, 0, 0, 0]"] ;
273 -> 281 ;
282 [label="entropy = 0.0\nsamples = 5\nvalue = [0, 0, 5, 0, 0, 0]"] ;
281 -> 282 ;
283 [label="density <= 0.998\nentropy = 1.0\nsamples = 2\nvalue = [0, 1, 1, 0, 0, 0]"] ;
281 -> 283 ;
284 [label="entropy = 0.0\nsamples = 1\nvalue = [0, 1, 0, 0, 0, 0]"] ;
283 -> 284 ;
285 [label="entropy = 0.0\nsamples = 1\nvalue = [0, 0, 1, 0, 0, 0]"] ;
283 -> 285 ;
286 [label="entropy = 0.0\nsamples = 6\nvalue = [0, 0, 0, 6, 0, 0]"] ;
258 -> 286 ;
287 [label="entropy = 0.0\nsamples = 9\nvalue = [0, 0, 0, 9, 0, 0]"] ;
257 -> 287 ;
288 [label="chlorides <= 0.069\nentropy = 1.977\nsamples = 16\nvalue = [0, 5, 4, 3, 4, 0]"] ;
212 -> 288 ;
289 [label="pH <= 3.25\nentropy = 0.985\nsamples = 7\nvalue = [0, 4, 0, 0, 3, 0]"] ;
288 -> 289 ;
290 [label="entropy = 0.0\nsamples = 2\nvalue = [0, 0, 0, 0, 2, 0]"] ;
289 -> 290 ;
291 [label="density <= 0.996\nentropy = 0.722\nsamples = 5\nvalue = [0, 4, 0, 0, 1, 0]"] ;
289 -> 291 ;
292 [label="entropy = 0.0\nsamples = 4\nvalue = [0, 4, 0, 0, 0, 0]"] ;
291 -> 292 ;
293 [label="entropy = 0.0\nsamples = 1\nvalue = [0, 0, 0, 0, 1, 0]"] ;
291 -> 293 ;
294 [label="residual sugar <= 4.5\nentropy = 1.753\nsamples = 9\nvalue = [0, 1, 4, 3, 1, 0]"] ;
288 -> 294 ;
295 [label="residual sugar <= 4.2\nentropy = 1.0\nsamples = 2\nvalue = [0, 1, 0, 0, 1, 0]"] ;
294 -> 295 ;
296 [label="entropy = 0.0\nsamples = 1\nvalue = [0, 0, 0, 0, 1, 0]"] ;
295 -> 296 ;
297 [label="entropy = 0.0\nsamples = 1\nvalue = [0, 1, 0, 0, 0, 0]"] ;
295 -> 297 ;
298 [label="alcohol <= 10.9\nentropy = 0.985\nsamples = 7\nvalue = [0, 0, 4, 3, 0, 0]"] ;
294 -> 298 ;
299 [label="entropy = 0.0\nsamples = 2\nvalue = [0, 0, 0, 2, 0, 0]"] ;
298 -> 299 ;
300 [label="residual sugar <= 4.7\nentropy = 0.722\nsamples = 5\nvalue = [0, 0, 4, 1, 0, 0]"] ;
298 -> 300 ;
301 [label="entropy = 0.0\nsamples = 1\nvalue = [0, 0, 0, 1, 0, 0]"] ;
300 -> 301 ;
302 [label="entropy = 0.0\nsamples = 4\nvalue = [0, 0, 4, 0, 0, 0]"] ;
300 -> 302 ;
303 [label="volatile acidity <= 1.147\nentropy = 1.252\nsamples = 6\nvalue = [1, 4, 1, 0, 0, 0]"] ;
211 -> 303 ;
304 [label="entropy = 0.0\nsamples = 4\nvalue = [0, 4, 0, 0, 0, 0]"] ;
303 -> 304 ;
305 [label="fixed acidity <= 7.7\nentropy = 1.0\nsamples = 2\nvalue = [1, 0, 1, 0, 0, 0]"] ;
303 -> 305 ;
306 [label="entropy = 0.0\nsamples = 1\nvalue = [1, 0, 0, 0, 0, 0]"] ;
305 -> 306 ;
307 [label="entropy = 0.0\nsamples = 1\nvalue = [0, 0, 1, 0, 0, 0]"] ;
305 -> 307 ;
308 [label="alcohol <= 11.55\nentropy = 1.624\nsamples = 209\nvalue = [0, 1, 28, 102, 71, 7]"] ;
210 -> 308 ;
309 [label="fixed acidity <= 6.95\nentropy = 1.452\nsamples = 121\nvalue = [0, 1, 23, 70, 27, 0]"] ;
308 -> 309 ;
310 [label="chlorides <= 0.119\nentropy = 0.549\nsamples = 21\nvalue = [0, 1, 0, 19, 1, 0]"] ;
309 -> 310 ;
311 [label="entropy = 0.0\nsamples = 18\nvalue = [0, 0, 0, 18, 0, 0]"] ;
310 -> 311 ;
312 [label="total sulfur dioxide <= 32.0\nentropy = 1.585\nsamples = 3\nvalue = [0, 1, 0, 1, 1, 0]"] ;
310 -> 312 ;
313 [label="entropy = 0.0\nsamples = 1\nvalue = [0, 1, 0, 0, 0, 0]"] ;
312 -> 313 ;
314 [label="total sulfur dioxide <= 34.5\nentropy = 1.0\nsamples = 2\nvalue = [0, 0, 0, 1, 1, 0]"] ;
312 -> 314 ;
315 [label="entropy = 0.0\nsamples = 1\nvalue = [0, 0, 0, 1, 0, 0]"] ;
314 -> 315 ;
316 [label="entropy = 0.0\nsamples = 1\nvalue = [0, 0, 0, 0, 1, 0]"] ;
314 -> 316 ;
317 [label="volatile acidity <= 0.375\nentropy = 1.488\nsamples = 100\nvalue = [0, 0, 23, 51, 26, 0]"] ;
309 -> 317 ;
318 [label="pH <= 3.25\nentropy = 1.539\nsamples = 40\nvalue = [0, 0, 10, 12, 18, 0]"] ;
317 -> 318 ;
319 [label="fixed acidity <= 10.45\nentropy = 0.896\nsamples = 16\nvalue = [0, 0, 0, 5, 11, 0]"] ;
318 -> 319 ;
320 [label="volatile acidity <= 0.34\nentropy = 0.991\nsamples = 9\nvalue = [0, 0, 0, 5, 4, 0]"] ;
319 -> 320 ;
321 [label="entropy = 0.0\nsamples = 4\nvalue = [0, 0, 0, 4, 0, 0]"] ;
320 -> 321 ;
322 [label="sulphates <= 0.7\nentropy = 0.722\nsamples = 5\nvalue = [0, 0, 0, 1, 4, 0]"] ;
320 -> 322 ;
323 [label="entropy = 0.0\nsamples = 1\nvalue = [0, 0, 0, 1, 0, 0]"] ;
322 -> 323 ;
324 [label="entropy = 0.0\nsamples = 4\nvalue = [0, 0, 0, 0, 4, 0]"] ;
322 -> 324 ;
325 [label="entropy = 0.0\nsamples = 7\nvalue = [0, 0, 0, 0, 7, 0]"] ;
319 -> 325 ;
326 [label="sulphates <= 0.715\nentropy = 1.563\nsamples = 24\nvalue = [0, 0, 10, 7, 7, 0]"] ;
318 -> 326 ;
327 [label="entropy = 0.0\nsamples = 5\nvalue = [0, 0, 5, 0, 0, 0]"] ;
326 -> 327 ;
328 [label="fixed acidity <= 8.05\nentropy = 1.568\nsamples = 19\nvalue = [0, 0, 5, 7, 7, 0]"] ;
326 -> 328 ;
329 [label="total sulfur dioxide <= 58.0\nentropy = 0.971\nsamples = 5\nvalue = [0, 0, 3, 0, 2, 0]"] ;
328 -> 329 ;
330 [label="entropy = 0.0\nsamples = 2\nvalue = [0, 0, 0, 0, 2, 0]"] ;
329 -> 330 ;
331 [label="entropy = 0.0\nsamples = 3\nvalue = [0, 0, 3, 0, 0, 0]"] ;
329 -> 331 ;
